<?xml version="1.0"?>
<opencv_storage>
<stage12>
  <maxWeakCount>10</maxWeakCount>
  <stageThreshold>-2.6475447416305542e-01</stageThreshold>
  <weakClassifiers>
    <_>
      <internalNodes>
        0 -1 54587 5.9004151262342930e-03</internalNodes>
      <leafValues>
        -8.4112152457237244e-02 8.1395345926284790e-01</leafValues></_>
    <_>
      <internalNodes>
        0 -1 2242 -3.0622535850852728e-03</internalNodes>
      <leafValues>
        4.2610913515090942e-01 -2.3500424623489380e-01</leafValues></_>
    <_>
      <internalNodes>
        0 -1 69798 -2.1311342716217041e-03</internalNodes>
      <leafValues>
        4.7018533945083618e-01 -2.3904109001159668e-01</leafValues></_>
    <_>
      <internalNodes>
        0 -1 57673 -4.4281251728534698e-02</internalNodes>
      <leafValues>
        -7.8657948970794678e-01 1.5017029643058777e-01</leafValues></_>
    <_>
      <internalNodes>
        0 -1 70605 2.9604684095829725e-03</internalNodes>
      <leafValues>
        -3.2956892251968384e-01 4.5679077506065369e-01</leafValues></_>
    <_>
      <internalNodes>
        0 -1 52110 -2.3826930671930313e-02</internalNodes>
      <leafValues>
        -6.0713762044906616e-01 2.1448111534118652e-01</leafValues></_>
    <_>
      <internalNodes>
        0 -1 34098 4.6928994357585907e-02</internalNodes>
      <leafValues>
        -1.5002417564392090e-01 8.2329964637756348e-01</leafValues></_>
    <_>
      <internalNodes>
        0 -1 33252 4.4423379004001617e-03</internalNodes>
      <leafValues>
        -1.7422150075435638e-01 5.9651505947113037e-01</leafValues></_>
    <_>
      <internalNodes>
        0 -1 5215 -1.0068546980619431e-02</internalNodes>
      <leafValues>
        -6.3407099246978760e-01 1.9955734908580780e-01</leafValues></_>
    <_>
      <internalNodes>
        0 -1 75998 3.3527895808219910e-02</internalNodes>
      <leafValues>
        -2.2722236812114716e-01 5.9870797395706177e-01</leafValues></_></weakClassifiers></stage12>
</opencv_storage>
