<?xml version="1.0"?>
<opencv_storage>
<stage6>
  <maxWeakCount>10</maxWeakCount>
  <stageThreshold>-5.7496476173400879e-01</stageThreshold>
  <weakClassifiers>
    <_>
      <internalNodes>
        0 -1 11254 -7.0866860914975405e-04</internalNodes>
      <leafValues>
        5.5813956260681152e-01 -2.0238095521926880e-01</leafValues></_>
    <_>
      <internalNodes>
        0 -1 77324 -8.9536383748054504e-03</internalNodes>
      <leafValues>
        6.2789344787597656e-01 -1.7682726681232452e-01</leafValues></_>
    <_>
      <internalNodes>
        0 -1 41810 3.3741062507033348e-03</internalNodes>
      <leafValues>
        -2.2537513077259064e-01 5.2782696485519409e-01</leafValues></_>
    <_>
      <internalNodes>
        0 -1 56789 3.2877083867788315e-02</internalNodes>
      <leafValues>
        1.3378687202930450e-01 -9.0243738889694214e-01</leafValues></_>
    <_>
      <internalNodes>
        0 -1 64452 1.6658548265695572e-03</internalNodes>
      <leafValues>
        -2.9279869794845581e-01 5.1325470209121704e-01</leafValues></_>
    <_>
      <internalNodes>
        0 -1 67714 1.3557234779000282e-02</internalNodes>
      <leafValues>
        -1.9312490522861481e-01 6.9640582799911499e-01</leafValues></_>
    <_>
      <internalNodes>
        0 -1 64326 -5.4929574253037572e-04</internalNodes>
      <leafValues>
        4.9555355310440063e-01 -3.2483854889869690e-01</leafValues></_>
    <_>
      <internalNodes>
        0 -1 53919 -8.0181180965155363e-04</internalNodes>
      <leafValues>
        5.1115393638610840e-01 -2.7184960246086121e-01</leafValues></_>
    <_>
      <internalNodes>
        0 -1 13330 -3.1513224821537733e-03</internalNodes>
      <leafValues>
        4.9741095304489136e-01 -3.2082441449165344e-01</leafValues></_>
    <_>
      <internalNodes>
        0 -1 12972 2.9136869125068188e-03</internalNodes>
      <leafValues>
        -2.7216958999633789e-01 6.3021618127822876e-01</leafValues></_></weakClassifiers></stage6>
</opencv_storage>
