<?xml version="1.0"?>
<opencv_storage>
<stage4>
  <maxWeakCount>11</maxWeakCount>
  <stageThreshold>-6.6580891609191895e-01</stageThreshold>
  <weakClassifiers>
    <_>
      <internalNodes>
        0 -1 49488 2.8765387833118439e-02</internalNodes>
      <leafValues>
        -1.4141413569450378e-01 7.5000000000000000e-01</leafValues></_>
    <_>
      <internalNodes>
        0 -1 25353 -1.4359620399773121e-02</internalNodes>
      <leafValues>
        4.4054397940635681e-01 -2.9632133245468140e-01</leafValues></_>
    <_>
      <internalNodes>
        0 -1 78083 3.4754937514662743e-03</internalNodes>
      <leafValues>
        -2.4945627152919769e-01 5.7199805974960327e-01</leafValues></_>
    <_>
      <internalNodes>
        0 -1 72553 -1.1448553996160626e-03</internalNodes>
      <leafValues>
        4.9988591670989990e-01 -2.7500477433204651e-01</leafValues></_>
    <_>
      <internalNodes>
        0 -1 72966 3.6153884138911963e-03</internalNodes>
      <leafValues>
        -2.7162781357765198e-01 4.7986948490142822e-01</leafValues></_>
    <_>
      <internalNodes>
        0 -1 56691 1.6964074457064271e-03</internalNodes>
      <leafValues>
        -2.4263891577720642e-01 5.7950955629348755e-01</leafValues></_>
    <_>
      <internalNodes>
        0 -1 14334 -2.2559608332812786e-03</internalNodes>
      <leafValues>
        5.6895834207534790e-01 -2.5436401367187500e-01</leafValues></_>
    <_>
      <internalNodes>
        0 -1 66301 4.9121270421892405e-04</internalNodes>
      <leafValues>
        -2.3013788461685181e-01 5.3097784519195557e-01</leafValues></_>
    <_>
      <internalNodes>
        0 -1 55594 -4.3227993883192539e-03</internalNodes>
      <leafValues>
        6.3866579532623291e-01 -2.8201630711555481e-01</leafValues></_>
    <_>
      <internalNodes>
        0 -1 8142 3.3593825995922089e-02</internalNodes>
      <leafValues>
        3.7429723143577576e-01 -4.7665324807167053e-01</leafValues></_>
    <_>
      <internalNodes>
        0 -1 63273 -7.6675619930028915e-03</internalNodes>
      <leafValues>
        5.6546312570571899e-01 -2.3448392748832703e-01</leafValues></_></weakClassifiers></stage4>
</opencv_storage>
