<?xml version="1.0"?>
<opencv_storage>
<stage2>
  <maxWeakCount>7</maxWeakCount>
  <stageThreshold>-3.5610198974609375e-01</stageThreshold>
  <weakClassifiers>
    <_>
      <internalNodes>
        0 -1 33807 -1.0754190152511001e-03</internalNodes>
      <leafValues>
        6.7647057771682739e-01 -1.7204301059246063e-01</leafValues></_>
    <_>
      <internalNodes>
        0 -1 69796 5.4576498223468661e-04</internalNodes>
      <leafValues>
        -2.6436254382133484e-01 5.0081622600555420e-01</leafValues></_>
    <_>
      <internalNodes>
        0 -1 18688 -5.1174340769648552e-03</internalNodes>
      <leafValues>
        3.9920881390571594e-01 -3.4705036878585815e-01</leafValues></_>
    <_>
      <internalNodes>
        0 -1 76026 4.5662213233299553e-04</internalNodes>
      <leafValues>
        -2.9336917400360107e-01 5.2446109056472778e-01</leafValues></_>
    <_>
      <internalNodes>
        0 -1 7599 6.9437632337212563e-03</internalNodes>
      <leafValues>
        -2.5662553310394287e-01 6.1519169807434082e-01</leafValues></_>
    <_>
      <internalNodes>
        0 -1 31693 -1.0721932165324688e-02</internalNodes>
      <leafValues>
        4.9325865507125854e-01 -3.0291014909744263e-01</leafValues></_>
    <_>
      <internalNodes>
        0 -1 57960 -3.1783655285835266e-03</internalNodes>
      <leafValues>
        5.7020193338394165e-01 -2.6216918230056763e-01</leafValues></_></weakClassifiers></stage2>
</opencv_storage>
