<?xml version="1.0"?>
<opencv_storage>
<stage5>
  <maxWeakCount>10</maxWeakCount>
  <stageThreshold>-7.7750277519226074e-01</stageThreshold>
  <weakClassifiers>
    <_>
      <internalNodes>
        0 -1 6944 -6.3041206449270248e-03</internalNodes>
      <leafValues>
        5.2941179275512695e-01 -1.8343195319175720e-01</leafValues></_>
    <_>
      <internalNodes>
        0 -1 76914 -2.0808951929211617e-02</internalNodes>
      <leafValues>
        5.3554081916809082e-01 -1.9208201766014099e-01</leafValues></_>
    <_>
      <internalNodes>
        0 -1 49046 8.9319152757525444e-03</internalNodes>
      <leafValues>
        1.7559485137462616e-01 -6.1844807863235474e-01</leafValues></_>
    <_>
      <internalNodes>
        0 -1 64549 -3.1164105166681111e-05</internalNodes>
      <leafValues>
        3.0058842897415161e-01 -4.1053497791290283e-01</leafValues></_>
    <_>
      <internalNodes>
        0 -1 61253 5.9020174667239189e-03</internalNodes>
      <leafValues>
        1.5357860922813416e-01 -8.6847376823425293e-01</leafValues></_>
    <_>
      <internalNodes>
        0 -1 32612 -1.7993083223700523e-02</internalNodes>
      <leafValues>
        7.7271431684494019e-01 -1.7384092509746552e-01</leafValues></_>
    <_>
      <internalNodes>
        0 -1 43874 -4.1248961351811886e-03</internalNodes>
      <leafValues>
        6.8087303638458252e-01 -1.9194068014621735e-01</leafValues></_>
    <_>
      <internalNodes>
        0 -1 5021 -4.7968802973628044e-03</internalNodes>
      <leafValues>
        -4.8556447029113770e-01 2.9446488618850708e-01</leafValues></_>
    <_>
      <internalNodes>
        0 -1 2804 -2.6082980912178755e-04</internalNodes>
      <leafValues>
        3.8748192787170410e-01 -3.6783802509307861e-01</leafValues></_>
    <_>
      <internalNodes>
        0 -1 77364 4.7319019213318825e-03</internalNodes>
      <leafValues>
        1.9972668588161469e-01 -8.1165349483489990e-01</leafValues></_></weakClassifiers></stage5>
</opencv_storage>
